digraph Tree {
node [shape=box, style="filled, rounded", color="black", fontname="helvetica"] ;
edge [fontname="helvetica"] ;
0 [label="petal length (cm) <= 2.45\ngini = 0.66\nsamples = 95\nvalue = [58, 50, 42]\nclass = setosa", fillcolor="#fdf5ef"] ;
1 [label="gini = 0.0\nsamples = 33\nvalue = [58, 0, 0]\nclass = setosa", fillcolor="#e58139"] ;
0 -> 1 [labeldistance=2.5, labelangle=45, headlabel="True"] ;
2 [label="petal length (cm) <= 4.75\ngini = 0.5\nsamples = 62\nvalue = [0, 50, 42]\nclass = versicolor", fillcolor="#dffbeb"] ;
0 -> 2 [labeldistance=2.5, labelangle=-45, headlabel="False"] ;
3 [label="sepal length (cm) <= 4.95\ngini = 0.04\nsamples = 30\nvalue = [0, 47, 1]\nclass = versicolor", fillcolor="#3de684"] ;
2 -> 3 ;
4 [label="gini = 0.0\nsamples = 1\nvalue = [0, 0, 1]\nclass = virginica", fillcolor="#8139e5"] ;
3 -> 4 ;
5 [label="gini = 0.0\nsamples = 29\nvalue = [0, 47, 0]\nclass = versicolor", fillcolor="#39e581"] ;
3 -> 5 ;
6 [label="sepal length (cm) <= 6.05\ngini = 0.13\nsamples = 32\nvalue = [0, 3, 41]\nclass = virginica", fillcolor="#8a47e7"] ;
2 -> 6 ;
7 [label="sepal width (cm) <= 3.1\ngini = 0.4\nsamples = 8\nvalue = [0, 3, 8]\nclass = virginica", fillcolor="#b083ef"] ;
6 -> 7 ;
8 [label="petal width (cm) <= 1.7\ngini = 0.32\nsamples = 7\nvalue = [0, 2, 8]\nclass = virginica", fillcolor="#a06aec"] ;
7 -> 8 ;
9 [label="sepal width (cm) <= 2.45\ngini = 0.44\nsamples = 2\nvalue = [0, 2, 1]\nclass = versicolor", fillcolor="#9cf2c0"] ;
8 -> 9 ;
10 [label="gini = 0.0\nsamples = 1\nvalue = [0, 0, 1]\nclass = virginica", fillcolor="#8139e5"] ;
9 -> 10 ;
11 [label="gini = 0.0\nsamples = 1\nvalue = [0, 2, 0]\nclass = versicolor", fillcolor="#39e581"] ;
9 -> 11 ;
12 [label="gini = 0.0\nsamples = 5\nvalue = [0, 0, 7]\nclass = virginica", fillcolor="#8139e5"] ;
8 -> 12 ;
13 [label="gini = 0.0\nsamples = 1\nvalue = [0, 1, 0]\nclass = versicolor", fillcolor="#39e581"] ;
7 -> 13 ;
14 [label="gini = 0.0\nsamples = 24\nvalue = [0, 0, 33]\nclass = virginica", fillcolor="#8139e5"] ;
6 -> 14 ;
}